{"weights":[{"row":7,"column":8,"elements":[-0.9807968139648438,0.22935116291046143,0.9159595966339111,-0.6136882305145264,-0.566300630569458,-0.5036845207214356,-0.8140265941619873,0.7450637817382813,-0.9416029453277588,0.9530339241027832,-0.8319754600524902,0.04818069934844971,0.5455458164215088,-0.3592022657394409,-0.5546045303344727,0.449583500623703,-0.8085882663726807,0.192254900932312,-0.2242649793624878,-0.9476773738861084,-0.3481689691543579,0.304686039686203,-0.7117259502410889,0.2571680247783661,-0.015591740608215332,0.5944571495056152,0.2004777193069458,-0.8085453510284424,-0.7862210273742676,-0.23941457271575929,-0.3655902147293091,0.6882922649383545,0.7220690250396729,-0.4822746515274048,0.9380884170532227,-0.09605848789215088,0.011481165885925293,-0.07922565937042237,-0.7686984539031982,-0.9438791275024414,-0.35351836681365969,0.6915829181671143,-0.0647510290145874,-0.11540472507476807,-0.8567852973937988,-0.2870258092880249,-0.6025292873382568,-0.030785202980041505,0.8834710121154785,-0.11021459102630615,-0.14353954792022706,0.7371551990509033,-0.21324598789215089,-0.8063507080078125,0.1863330602645874,-0.3020557165145874]},{"row":8,"column":4,"elements":[-0.18751823902130128,-0.9504876136779785,0.898087739944458,-0.9087693691253662,0.08482992649078369,-0.7940044403076172,-0.24419009685516358,0.9288613796234131,-0.4936157464981079,0.8340144157409668,0.5224637985229492,0.8490955829620361,0.08700287342071533,0.7016446590423584,-0.2628575563430786,-0.9760918617248535,0.5451633930206299,-0.8332581520080566,0.162270188331604,0.5380892753601074,-0.03387033939361572,-0.23312079906463624,-0.1837393045425415,0.38720938563346865,-0.5616395473480225,0.6237502098083496,-0.45413434505462649,0.23425209522247315,-0.47926390171051028,-0.37212932109832766,0.847386360168457,0.06281936168670654]}],"biases":[{"row":1,"column":8,"elements":[-0.9637045860290527,-0.5613682270050049,0.584906816482544,-0.39150702953338625,0.41324421763420107,0.5739467144012451,-0.4743608236312866,0.14117729663848878]},{"row":1,"column":4,"elements":[0.1652296781539917,0.9975321292877197,-0.9391484260559082,0.8831474781036377]}],"inputSize":7,"hiddenSize":8,"hiddenLayers":1,"outputSize":4}