{"weights":[{"row":7,"column":8,"elements":[0.716311869853179,-0.46965038776397707,0.7245512008666992,-0.0033720731735229494,0.825305700302124,0.21754109859466554,0.6232805252075195,-0.8310200243324886,1.0136682483000499,-0.9123668553523459,0.07589232921600342,-0.2052384614944458,0.5526099795798682,-0.30296647548675539,0.6511466359949587,0.8744337558746338,0.7680478096008301,0.7573678493499756,0.39398834109306338,-0.7341170115288984,0.5733575820922852,-0.2602027654647827,0.3489823043346405,-0.561427495186166,-0.06928956508636475,-0.18688666820526124,0.9599636898435371,-0.9330546855926514,0.921428918838501,0.023182206945350005,0.687621486913585,-0.2605539560317993,-0.30372321158937157,0.9108545780181885,0.5386440753936768,-0.6379125118255615,-0.8556079864501953,0.8102583885192871,0.10437428951263428,0.06995666027069092,0.17927968502044679,-0.9196336269378662,0.45837328906429067,0.11571292064129146,0.609299898147583,0.7842471599578857,-0.307900071144104,0.6503653526306152,-0.7066676616668701,-0.7290585041046143,-0.32685840129852297,-0.7329782448423019,-0.0989845353005947,0.6666052926848494,-0.8630850315093994,0.19915974140167237]},{"row":8,"column":4,"elements":[0.961376428604126,-0.7496908392946331,0.15525972843170167,-0.7239458560943604,-0.3216177225112915,-0.27046692991674706,0.5147042274475098,0.7728424072265625,0.7589516639709473,-0.49055325984954836,-0.5883474349975586,0.4531559646129608,0.23008310794830323,-0.6808252334594727,0.7366652792383999,-0.2725318670272827,0.443238228559494,-0.31051342780047266,-0.6780416965484619,-0.2614604658581552,-0.8798400578107619,0.09837399351719611,-0.25256550312042239,-0.3689473867416382,-0.28509342670440676,-0.5706431865692139,-0.9998562335968018,-0.6314418315887451,0.5195238308151176,-0.6427910327911377,0.8366413116455078,-0.10234879559037324]}],"biases":[{"row":1,"column":8,"elements":[0.35679423181439065,0.24075853824615479,0.5177757740020752,-0.2806915044784546,-0.08071186831841715,-0.40312254428863528,0.8762478828430176,-0.17991520016934005]},{"row":1,"column":4,"elements":[-0.017348408699035646,-0.6707751750946045,-0.7850158214569092,0.21923172798239855]}],"inputSize":7,"hiddenSize":8,"hiddenLayers":1,"outputSize":4}