{"weights":[{"row":7,"column":8,"elements":[-0.33150727575841545,-0.3718805771459155,0.618747340626129,-0.7164089518806627,1.391647458076477,-0.34929966310214236,0.7054011354860474,-0.8533468246459961,0.6678924996992404,-0.3043888807296753,0.5475978851318359,0.7569100967884688,-0.7640087526174426,0.9306346641250751,-0.8510744086704012,-0.10616424238595723,-0.2048221310113334,-0.5118852126680054,0.4129352271556854,-0.6179600291344869,0.6370267002777301,0.8001134569982984,0.10962765765769334,-0.4651793886257636,-0.3905678957436196,0.5099789257947336,1.0072908726328436,0.8241625070144707,-0.9127086679587912,-0.5574254849699489,-0.019553065299987794,0.729524255768716,-0.46173553520718527,-0.12929900748391533,0.20460580798854623,-0.811530554155566,0.591666191328093,-0.43870042794756239,0.07123034292825636,-0.5885736052743811,0.6724078697040206,-0.30312602434851845,0.9696065741707916,-0.19270229683185392,0.5466145084971501,0.9209611501965362,0.7175397334620661,0.2942383624573637,-0.39584929267684645,0.8036200806485638,-0.5004289150238037,0.7666426035939296,-0.714044169714402,0.04563139685486828,2.981177806854248,0.034951759658916618]},{"row":8,"column":4,"elements":[0.5192271567521878,-0.3250696834271629,0.8908518460812065,0.9775352296247277,-0.13441919760019517,-0.026966635896860326,0.5018252730369568,-1.2571860084792146,1.1302033170104622,0.5486104486413765,0.06719134628469004,-0.5983941839925926,-0.00784458157079726,-1.1494158149240593,0.6655217178423918,0.18832463953854629,-0.9075214633937669,-0.5914351876430324,-0.21564856255758703,0.9121192188789731,0.34978905518185857,-0.9678286910057068,0.3873018106393946,-0.20309427190160535,-0.3671136799762884,-0.16395786741991004,-0.7214780050691427,0.16142095192131923,-0.5206057916908922,1.2350597371866599,0.04520143848449898,-1.0214720655604133]}],"biases":[{"row":1,"column":8,"elements":[-0.27549925691973789,0.0025831007881365055,0.19652829547553098,0.16030218024330623,-0.6579717723478495,-0.46708571910858157,-0.178336501121521,0.5302413936033095]},{"row":1,"column":4,"elements":[-0.4458962482981512,0.2036862175586407,0.18776117287019379,-0.2574553337376333]}],"inputSize":7,"hiddenSize":8,"hiddenLayers":1,"outputSize":4}